-0.00091164 0.00095992 -0.00002414 -0.00002414 0.10316620 -0.10651889 0.00167635 0.00167635 -0.00061769 0.00065854 -0.00002042 -0.00002042 -0.00037552 0.00039396 -0.00000922 -0.00000922 0.00005438 -0.00005885 0.00000224 0.00000224 0.00008396 -0.00008884 0.00000244 0.00000244 0.00023234 -0.00023887 0.00000327 0.00000327 0.00005525 -0.00005906 0.00000190 0.00000190 0.00026105 -0.00026865 0.00000380 0.00000380 0.00005481 -0.00005896 0.00000207 0.00000207 0.00020318 -0.00020898 0.00000290 0.00000290 0.00008440 -0.00008894 0.00000227 0.00000227 0.00017403 -0.00017910 0.00000253 0.00000253 0.00011399 -0.00011893 0.00000247 0.00000247 0.00023146 -0.00023867 0.00000360 0.00000360 0.00020188 -0.00020868 0.00000340 0.00000340 -0.02208870 0.02321283 -0.00056207 -0.00056207 8.64251583 -8.17097344 -0.23577120 -0.23577120 -0.03672815 0.03862088 -0.00094637 -0.00094637 -0.00196289 0.00206268 -0.00004989 -0.00004989 0.00000813 -0.00001113 0.00000150 0.00000150 0.00002345 -0.00002625 0.00000140 0.00000140 0.00018639 -0.00019122 0.00000241 0.00000241 0.00000952 -0.00001146 0.00000097 0.00000097 0.00023573 -0.00024197 0.00000312 0.00000312 0.00000887 -0.00001130 0.00000122 0.00000122 0.00014267 -0.00014639 0.00000186 0.00000186 0.00002410 -0.00002640 0.00000115 0.00000115 0.00010477 -0.00010754 0.00000139 0.00000139 0.00004507 -0.00004745 0.00000119 0.00000119 0.00018587 -0.00019109 0.00000261 0.00000261 0.00014175 -0.00014618 0.00000221 0.00000221 -0.00091164 0.00095992 -0.00002414 -0.00002414 0.10316620 -0.10651889 0.00167635 0.00167635 -0.00061769 0.00065854 -0.00002042 -0.00002042 -0.00037552 0.00039396 -0.00000922 -0.00000922 0.00005438 -0.00005885 0.00000224 0.00000224 0.00008396 -0.00008884 0.00000244 0.00000244 0.00023234 -0.00023887 0.00000327 0.00000327 0.00005525 -0.00005906 0.00000190 0.00000190 0.00026105 -0.00026865 0.00000380 0.00000380 0.00005481 -0.00005896 0.00000207 0.00000207 0.00020318 -0.00020898 0.00000290 0.00000290 0.00008440 -0.00008894 0.00000227 0.00000227 0.00017403 -0.00017910 0.00000253 0.00000253 0.00011399 -0.00011893 0.00000247 0.00000247 0.00023146 -0.00023867 0.00000360 0.00000360 0.00020188 -0.00020868 0.00000340 0.00000340 0.00028715 -0.00029782 0.00000534 0.00000534 0.00028715 -0.00029782 0.00000534 0.00000534 0.00028715 -0.00029782 0.00000534 0.00000534 0.00009372 -0.00009919 0.00000273 0.00000273 0.00028715 -0.00029782 0.00000534 0.00000534 0.00028715 -0.00029782 0.00000534 0.00000534 0.00028715 -0.00029782 0.00000534 0.00000534 0.00028715 -0.00029782 0.00000534 0.00000534 0.00028715 -0.00029782 0.00000534 0.00000534 0.00028715 -0.00029782 0.00000534 0.00000534 0.00028715 -0.00029782 0.00000534 0.00000534 0.00028715 -0.00029782 0.00000534 0.00000534 0.00028715 -0.00029782 0.00000534 0.00000534 0.00028715 -0.00029782 0.00000534 0.00000534 0.00028715 -0.00029782 0.00000534 0.00000534 0.00028715 -0.00029782 0.00000534 0.00000534 9.29232622 -8.75480615 -0.26876004 -0.26876004
